,test_index,y_pred,y_true
0,9,0.06854628831530474,-0.5613735159514738
1,30,-0.02871905661018226,0.41316470955605966
2,39,-0.28133317778827904,-1.1358381541453884
3,55,-0.3783363220270455,-1.8187740259868461
4,72,-0.6649932193095565,-1.264066868027958
5,73,0.3425055342289718,1.3620565767892523
6,75,0.28796272770343023,-0.899897320601459
7,76,0.3155562921734396,0.5567798432748271
8,77,0.4067419248429518,0.8747870537036012
9,78,0.41711462411877887,1.1415027785793472
10,79,-0.9660728155061642,2.3879525564491484
11,82,-0.04141414999759041,0.18748217312273607
12,90,-0.62224458763333,-1.0801766340232422
13,101,0.33223890474357365,1.397960616676372
14,113,-0.07355468639297258,0.5106175062771018
15,117,0.25442855655062013,1.2646023439066145
16,124,-0.4511801168163113,-0.41186909386150744
17,132,0.3846650059750274,1.834697973361122
18,140,-0.29010944025968355,0.38751896677954556
19,153,-0.02225580309217734,0.7516874883763338
20,155,0.052699018667973,-0.8837507609493659
21,168,-0.02127186046929741,2.2750446093012675
22,204,0.1249452162597604,-1.3922955819105283
23,220,0.433140927886557,1.5415767762248505
24,229,0.2905308855808659,0.5729274287566315
25,244,-0.40064023579029273,0.22145765315306196
26,247,0.07409686129712512,-0.9050264691567618
27,255,0.20318261575005137,1.197923412687678
28,274,-0.9723761009927883,-0.8837507609493659
29,280,0.1269701900788458,0.36700237255833434
30,286,0.2976029634957651,1.5723512572247829
31,290,-0.04505900648675776,-0.14078333441664345
32,301,0.08955982991578693,-1.9095804720099274
33,316,0.2405267609631252,0.2849359956734895
34,323,-0.5837738167514128,-1.2281628281408383
35,338,0.5484171845460133,1.7159674167732615
36,352,-0.09575732915892132,-0.8691224292696421
37,381,-0.36036292990576513,-0.06384610608710156
38,399,-0.5451857692233902,-0.8639932807143393
39,400,0.33143261325853324,0.8645287565929956
40,409,-0.13941212462646457,-1.3410040963575003
41,410,-0.11983807660479684,-1.377667250230805
42,419,0.12076367522386744,-0.04845866042119313
43,423,0.40114978517274524,-0.7511520124976775
44,444,0.11422296531993825,-0.3818533165158756
45,448,0.022170783965927532,1.2594731953513119
46,0,-0.4598858618139282,-0.0843627003083128
47,11,-0.03723093577390468,-0.44416221316569404
48,15,0.028013763220362975,-0.981963697486304
49,19,0.0377570295520282,-1.115321559924177
50,22,0.1258430291767878,-0.10487929452952377
51,24,-0.009138839174480662,0.9004327964801152
52,25,0.1231510834358649,0.8696579051482983
53,33,-0.12998179476092497,-0.7819269038294944
54,42,-0.46496224811706155,-0.5665026645067766
55,46,-0.15043365606374937,-1.428199621797648
56,56,-0.36716134598461825,-1.1519847137974812
57,57,0.5076867049140776,-0.33056183096284747
58,70,-0.4128815891531379,-0.8442358004793128
59,93,-0.7116777054479222,-0.9870928460416069
60,116,-0.6222389312550398,-1.9257270316620203
61,137,0.007934042095613325,-0.17668737430376313
62,154,0.29926073973403833,-0.6126650015045019
63,165,-0.6255042780320829,-1.838531506221873
64,185,-0.17668170962838325,1.1722776699111639
65,193,0.12198124168093827,-1.202517085364325
66,196,-0.16028436380353184,-0.2946577910757278
67,208,-0.07701597091264589,-0.4485322477348119
68,237,-0.038886163034318466,0.6132004773831581
69,238,0.9358355077965363,0.8029789739293619
70,246,0.12048478710629085,-0.9101556177120647
71,262,0.42486908715693406,-0.8280892408272197
72,266,0.11013910120007653,-0.6485690413916215
73,275,0.5018565793391352,1.0081449161414742
74,289,0.29195436119685003,-1.4787319933644911
75,291,0.21633484409212733,-0.9870928460416069
76,299,0.1214317503986162,1.423606359452886
77,314,0.03428312895665675,0.1361906875697081
78,340,0.2858691154638209,0.9312076878119321
79,353,-0.08095487740734186,0.07977005346137717
80,390,0.40239394050789024,0.5413923976089187
81,393,-0.586186911933018,-0.9973511431522124
82,398,-0.2927031253415032,-0.8588641321590366
83,404,0.2830853634887307,0.27980684711818665
84,411,0.48406877599333575,0.10541579623789123
85,422,0.07975578656479487,-0.13052503730603782
86,428,-0.7952879293587558,-1.484620255905979
87,430,0.053863555331083335,0.7157834484892142
88,439,0.14439990354337162,-0.0022963234234678227
89,441,0.3568639264742208,0.5721672889407355
90,445,0.5352340078953823,-0.39724076218178406
91,449,-0.5468908729055802,-1.9359853287726259
92,3,0.0800720310826617,0.5208758033877074
93,5,-0.13366088937836773,1.2704916322778133
94,7,0.09460312049459296,-0.14078333441664345
95,16,-0.04761664935295107,0.018220270797743424
96,17,-0.11547410348460052,0.6388462201596721
97,18,-0.12404741615725445,-0.04845866042119313
98,26,-0.006595088815416261,-1.3153583535809863
99,29,0.03220147805200568,-0.07410440319770718
100,31,0.0508534238842997,0.054124310684863106
101,45,-0.08438302549975485,-1.2281628281408383
102,60,0.057307737271050874,1.1004695901369248
103,63,0.2896038550247917,-0.18694567141436877
104,66,-0.18323276180767623,-1.3248575367054074
105,84,0.20242446068877573,0.7311708941551226
106,94,-0.22362132403070034,0.4644551692793767
107,104,0.3612025388236746,0.5003592091664962
108,108,-0.2817528093852212,0.22851536156515856
109,110,-0.10266269698499386,0.03873686501895467
110,126,-0.4597833335856989,-0.4485322477348119
111,131,-0.3333596468315341,-1.433328770352951
112,175,-0.004543600646920609,-0.7921852009400999
113,180,-0.150093119989529,-0.14591248297194626
114,181,0.24792277152291597,1.372314873899858
115,195,0.03559906365034737,-1.1358381541453884
116,211,0.05260164238414644,-0.5665026645067766
117,222,0.31335778091680333,-0.5657435505205918
118,231,0.17118296288212842,0.9927574704755657
119,245,0.0436787762909876,0.44906772361346825
120,250,0.4033591396363678,1.4338646565634918
121,253,0.11532287594033908,0.4336802779475598
122,285,0.4386595562468878,0.23364451012046136
123,287,0.16818896743282918,0.3516149268924259
124,311,-0.037421466184256236,0.44982786342936404
125,324,0.015375309438768081,-1.0383843315946348
126,333,0.345919282185261,1.3466687207914594
127,342,0.13446642055512803,0.5670381403854328
128,355,0.42086037101172646,0.7978498253740591
129,357,0.46462435725086126,0.4644551692793767
130,371,-0.06863782210129232,-0.13052503730603782
131,375,-0.5246056812372784,-1.377667250230805
132,378,0.17986019266200293,0.3003234413393979
133,391,-0.5345852426433038,-1.058900925815846
134,403,-0.26950704522047186,0.2849359956734895
135,420,0.42800150356110045,1.7108382682179588
136,431,0.023272058561086828,-1.5564283356802184
137,452,-0.05953450900693258,-1.0640300743711486
138,36,-0.2825612511811816,-0.6844730812787412
139,74,0.5368590816734955,0.5978130317172496
140,83,-1.0106912919457403,-1.269196016583261
141,109,-0.10842843150659864,1.397960616676372
142,114,0.06523611781711125,0.018979384783928143
143,118,0.059842691010401294,0.19774047023334168
144,119,-0.7404904601716238,0.746558339821031
145,139,0.2625949025005596,1.2081817097982837
146,141,-0.09719191737101118,-0.05871695753179875
147,145,0.5985570539785945,0.6696211114914888
148,148,0.2728712711727934,0.5318942403142091
149,152,0.28908636233492246,-0.04332951186589032
150,157,-0.0025271623887164196,0.6593628143808832
151,172,0.2448638022235179,0.9055619450354181
152,173,0.18918148778628674,0.6960269940838989
153,176,-0.37206344801105373,-1.8487898033324786
154,192,-0.12135026577589147,0.8850453508142068
155,203,0.2933075997135408,0.8747870537036012
156,209,0.11117810804784134,1.0491781045838966
157,210,-0.3574963334709611,-0.6024067043938962
158,218,0.33804414624823464,-0.7460228639423747
159,234,0.42054341391452077,1.7115984080338547
160,239,0.418146938018503,-1.0391434455808197
161,272,0.5741300122124131,1.0286615103626853
162,302,0.039718362147872055,0.45932602072407386
163,304,-0.05051704174199645,1.2440857496854034
164,312,0.4160662979409564,-0.07410440319770718
165,317,-0.15656504876973054,1.5056727363377307
166,321,-0.49765789760894896,-0.864752394700524
167,329,0.07479681768639379,1.1825359670217697
168,331,0.10207001938052418,0.4388094265028626
169,332,-0.4339882420055271,-1.8487898033324786
170,336,-0.12575631668773013,1.254344046796009
171,341,0.15992219304972166,-0.11000844308482659
172,346,0.05565377879889466,0.5721672889407355
173,349,0.19578725541058462,-0.4280156535136006
174,358,0.07659872660554923,-0.01768376908937626
175,369,-0.30231744956024353,-0.9665762518203955
176,370,-0.1844934720398257,0.40803556100075683
177,374,-1.0201739249191208,0.18159391058124855
178,379,-0.3383296920311032,-0.6126650015045019
179,401,-0.2309605188695738,1.0337906589179882
180,405,0.6260392198154714,0.3926481153348484
181,414,-0.04281495153236481,-1.4948785530165847
182,424,0.22932528550173004,-0.4485322477348119
183,447,0.05893685585544395,-0.7416528293732568
184,2,0.04639999318278021,0.6285879230490665
185,6,0.08951214418038478,0.9414659849225376
186,10,0.01801884913391072,-0.9152847662673674
187,38,-0.1207951659617873,0.16696557890152497
188,59,-0.23131599430252636,-0.09386188343273343
189,69,-0.11541830916564289,0.8593996080376929
190,81,-0.555906317773642,-1.6231072668991549
191,89,-0.5027583596584002,-1.5197651818069136
192,92,-0.7173981245019287,-1.6590113067862746
193,96,-0.4584330634202578,-1.9506136604523499
194,103,0.5353519838260183,0.3464857783371231
195,111,0.10287682645681917,0.9106910935907209
196,123,0.44072628089953314,0.9671117276990516
197,143,0.16997684315814543,0.21825706445455292
198,147,0.44790286070134333,-0.0836035863221278
199,150,-0.08161806094658064,0.38751896677954556
200,158,-0.068536858533089,0.5311341004983131
201,163,0.2521899593945014,0.35674407544772874
202,167,-0.2474311999707024,-0.5349686591887749
203,177,0.3336698291441005,0.772204082597545
204,184,-0.004889558727140031,-0.0843627003083128
205,194,-0.048862537690562924,1.5774804057800857
206,198,-0.03401475820236477,0.6132004773831581
207,199,0.22563066972817913,0.6285879230490665
208,225,0.23623139918014502,1.074064733374226
209,227,0.5044684153779762,1.0337906589179882
210,248,-0.27638984987052906,-1.4794911073506762
211,249,0.08854743750898009,0.7268018854157158
212,268,-0.13313323161755508,0.22338621300985576
213,277,0.3626209458198677,0.45932602072407386
214,284,0.24123636924958602,1.1312444814687417
215,325,0.20162227196973315,1.1363736300240443
216,334,-0.3587171602019874,-1.54104089001431
217,335,-0.4699968603700468,-0.71087793804144
218,351,0.021889659304162645,-0.66395648705753
219,364,-0.18858170107161054,-0.8845098749355506
220,365,-0.32934930304376275,-0.32711504313368395
221,380,-0.4549403614806798,-0.6434398928363187
222,384,0.016090671095407072,-0.13052503730603782
223,396,-0.06545974288761602,-0.7819269038294944
224,397,-0.5787453564263636,-1.007609440262818
225,407,0.3167749013868906,-0.19720396852497438
226,425,-0.3086990274998622,-0.49982373328783997
227,426,-0.14768940236262196,0.5003592091664962
228,433,-0.03792134874663655,0.17722387601213044
229,23,-0.025394714189471923,0.3413566297818203
230,37,-0.16737181470549212,-0.012554620534073446
231,67,-0.10409843749339975,-0.5408569217302625
232,68,-0.4711680759538608,-0.5972775558385934
233,86,-0.8645243407755525,-2.064973156641381
234,97,-0.7523560479218097,-1.9103395859961119
235,112,-0.382780370582233,0.20799876734394732
236,122,0.19934237959200485,0.10541579623789123
237,125,0.08627220410429981,-1.829032323097452
238,129,-0.3400858073936923,-1.982906779756536
239,144,0.12316147247950271,0.8234955681505732
240,146,0.6375355237530078,1.4800269935612167
241,179,0.4002059015676567,-0.6793439327234384
242,182,-0.03337462308219874,-0.25362460263330533
243,183,0.10769670698262201,-0.18181652285906594
244,202,0.42568047436505796,1.223569155464192
245,219,0.16008697912128778,-0.7408937153870718
246,223,0.2665757658087471,2.403273323183838
247,228,0.05958635984262384,0.8593996080376929
248,233,0.19016769502042874,0.5567798432748271
249,261,0.1010694756484356,-0.3921116136264812
250,265,0.1815350659638011,0.41316470955605966
251,271,0.0630465717119788,0.5318942403142091
252,278,0.3351511504949045,-0.09386188343273343
253,281,0.27543280925107494,0.9730010160702504
254,296,0.3975002326615049,0.3003234413393979
255,297,0.27196526733856863,-0.581890110172685
256,298,0.5010759256071811,1.7570006052156841
257,307,-0.15833266881248365,-0.9973511431522124
258,318,0.19650003541187022,-0.32030353385224186
259,320,-0.40487763354208517,-1.2281628281408383
260,322,-0.5188786750712376,-1.0281260344840293
261,347,0.24613202346330976,1.3628163062732637
262,360,-0.3478482645771973,-0.4946945847325372
263,361,0.10889613084561534,-0.01768376908937626
264,373,-0.8540043090531577,-1.402553879021134
265,382,-0.46482277881529266,0.8191265594111662
266,383,-0.1770394015094886,1.4492521022294
267,389,0.20569992478700705,-0.9870928460416069
268,402,-0.07241020371711215,0.08489920201667997
269,427,-0.4537787449182541,-0.03307121475528469
270,434,0.438674662232154,1.1004695901369248
271,437,-0.5452239540877065,-2.0429383344478005
272,440,0.42558671624492517,1.0337906589179882
273,451,-0.23911237872371782,0.4747134663899823
274,12,0.04127629323275772,0.09952753369640369
275,28,-0.12652345956136746,-1.5564283356802184
276,35,-0.073789384074616,-1.2794543136938665
277,41,-0.28972626158314485,-1.931615294203508
278,44,-0.4170996374577498,-1.12045070847948
279,51,-0.3974062580246531,-0.6280524471704103
280,65,-0.19743402626295237,-1.2281628281408383
281,85,-0.7688986658468204,-0.8544940975899185
282,95,-0.22060342255288912,0.6234587744937636
283,107,-0.2224756730504971,-0.35620757373936157
284,115,0.25450838279815935,0.9824991733649601
285,120,-0.2002436904891427,0.22851536156515856
286,127,-0.06687400253228903,0.5157466548324047
287,133,0.46796819989326144,1.249214898240706
288,136,-0.16992408701449135,-0.9717054003756984
289,142,-0.00950070574259898,-0.36133672229466435
290,159,-0.1526448266106577,0.5772964374960384
291,164,-0.12955059743372788,0.34724489232330796
292,170,0.30231147523495894,-0.23310800841209406
293,178,0.4410370666498411,0.6029421802725524
294,186,-0.33536220923023474,-1.6436238611203662
295,197,0.09451741193451402,-0.21259141419088282
296,206,0.319827493451031,-0.009107832704909929
297,221,0.43060412555422123,1.5364476276695476
298,224,-0.08378353188933763,0.3464857783371231
299,232,0.413512363324277,-0.21259141419088282
300,240,0.26734689370222164,1.885229319098254
301,242,0.1380960190718199,0.08489920201667997
302,254,0.4529450591873947,1.331281275125551
303,258,0.18301972985363002,0.03873686501895467
304,282,0.12367376305053646,0.7260417455998198
305,283,-0.13774255255562595,-0.20746226563558
306,294,0.4196829627539653,0.56190899183013
307,305,0.2768646021417036,0.5216359432036034
308,310,-0.15899758980509304,1.300506383793734
309,354,0.24851218810625153,0.7106542999339114
310,362,0.39836500776628214,-0.07410440319770718
311,367,-0.005129536933669132,-1.3615206905787114
312,376,-0.4371918469143986,-1.264066868027958
313,377,0.23245763389155627,1.4954144392271251
314,392,0.12467248433704903,-0.9050264691567618
315,395,0.16434805497634453,0.1361906875697081
316,412,0.4139632704562832,0.6285879230490665
317,418,0.04391911377438662,1.5979970000012969
318,442,0.34830939608944766,0.23364451012046136
319,4,-0.2859281862743105,-0.1561707800825519
320,8,-0.35814072423091237,0.5465215461642215
321,14,-0.1413680816899594,-0.07923355175301
322,27,-0.08417827817532908,0.9649472270087139
323,32,-0.11645900979772617,-1.4076830275764367
324,40,-0.496985969215096,0.9722408762543544
325,47,-0.4717045730992708,1.9519082503171907
326,61,-0.048460708005715,1.3364104236808538
327,62,0.0355318232425621,0.6644919629361861
328,64,-0.10333050364003438,-0.35620757373936157
329,98,-0.2653615611476495,-1.962390185535325
330,100,0.11124462767719301,1.700579971107353
331,128,0.34204717098361304,-0.5767609616173822
332,135,-0.2286988696456782,0.772204082597545
333,138,0.23564014006161726,0.5721672889407355
334,156,0.0327284529185905,0.5926838831619469
335,162,-0.8191425002794495,-1.1922587882537192
336,171,-0.15878003700963694,1.5210601820036391
337,200,0.4688744451279818,-1.3102292050256834
338,213,-0.15448861199503527,-0.02794206619998188
339,215,0.025522841792817053,-0.09462099741891844
340,216,0.49316780892489276,1.064565550249805
341,226,0.19293308980861967,0.2900651442287923
342,230,-0.5613098075321306,-1.346133244912803
343,236,0.032542295889228634,0.5516506947195243
344,256,0.22357066418753924,-0.3459492766287559
345,260,0.2948785935954865,1.7108382682179588
346,267,0.10360742433029912,0.3618732240030315
347,279,0.3250304228752592,1.2646023439066145
348,288,0.006408925790114872,1.3158938294596425
349,292,0.3046985368572219,1.1363736300240443
350,300,-0.029666561862032204,-0.012554620534073446
351,326,0.2694133728685282,0.8696579051482983
352,327,0.4058361340552392,1.279989789572523
353,337,0.24933116014662793,-0.02281291764467907
354,356,-0.06288939457344278,0.8909346391854056
355,368,-0.35148626959060014,-1.4435870674635565
356,386,-0.6219052515416315,-1.1614838969219023
357,388,-0.4368235561515734,-0.7101188240552553
358,394,-0.737047637694061,-1.289712610804472
359,406,-0.008576214845498198,0.8491413109270872
360,408,-0.34021861600723147,-1.2794543136938665
361,417,-0.13773712557181905,-1.428199621797648
362,421,0.4082564541584257,2.490469874453696
363,432,0.36954844156726074,0.02386233420857646
364,1,-0.036382858220024294,-1.1768713425878108
365,13,-0.045494904260810265,0.4952300606111935
366,34,-0.04955892978348764,-0.8588641321590366
367,43,-0.2788658558725393,-1.6641404553415773
368,49,0.07722101158364869,-1.1050632628135713
369,52,-0.32057717392924723,-1.433328770352951
370,53,-0.19751860821273026,-1.2179045310302328
371,80,-0.6637744623948475,-1.1768713425878108
372,88,-0.480876940628087,-2.001905146005378
373,91,-0.4366521826884683,-1.253049456931168
374,105,0.11244623260154007,1.0242925016232785
375,134,0.20332172614524624,-0.18181652285906594
376,161,-0.27238163097809553,-1.6590113067862746
377,166,-0.07775518767834533,-0.04332951186589032
378,190,-0.0311907664213259,-1.9257270316620203
379,201,0.13291567891960576,0.3105817384500034
380,205,0.20276161237798718,1.2851189381278256
381,207,-0.10057667125157477,-1.1820004911431137
382,212,-0.13601389008670783,0.4285521552219681
383,217,0.031267306846868514,0.6285879230490665
384,241,0.30886389208661646,0.2028696187886445
385,251,0.38212381038813037,0.9217095305172225
386,259,0.3683086916153888,0.7883516680793493
387,263,0.5025053980347154,0.9055619450354181
388,264,-0.12152113915124862,-1.843660654777176
389,269,-0.0940188559700309,-0.9255430633779731
390,273,0.288717800191056,0.5465215461642215
391,295,0.2864585083714599,-0.1664290771931575
392,303,0.012894568699632458,0.7568166369316367
393,306,0.260429495947863,0.4798426149452851
394,309,0.013923472204263265,1.3466687207914594
395,315,0.164294562276889,0.06951175635077154
396,328,0.1894120779618209,0.18748217312273607
397,339,0.28860804946072505,0.6644919629361861
398,345,0.2404855824862242,0.16696557890152497
399,350,0.034025519578313235,1.1363736300240443
400,366,-0.2624358871949125,-0.817830943716614
401,387,-0.5145610178396145,-2.013681671088353
402,415,0.42000790340656047,0.06438260779546873
403,416,-0.03410750343497626,1.1927942641323752
404,429,0.09889127830648214,0.6542336658255805
405,436,0.25983909900163815,0.5003592091664962
406,438,0.4033588702375077,0.018979384783928143
407,443,0.28905899896820064,0.7560575229454518
408,446,0.019356196302250495,1.1722776699111639
409,20,-0.09946931669487646,-1.561557484235521
410,21,-0.09223004261218826,1.5056727363377307
411,48,0.21444854399067315,-0.66395648705753
412,50,-0.5086045631916289,0.3867598527933607
413,54,-0.346864063321494,-1.0178677373734237
414,58,0.10144951703479999,-1.798257431765635
415,71,-0.567073896002005,-1.7367076491020013
416,87,-0.8497589956332956,-1.377667250230805
417,99,-0.4226483626509576,-1.2743251651385636
418,102,-0.7279175812137678,-1.9521318884247192
419,106,-0.1843338895302462,-0.6280524471704103
420,121,-0.23326370584084888,-0.7562811610529803
421,130,0.17411547313322173,-0.31517438529693903
422,149,0.5375763804812794,1.0550673929550953
423,151,0.27233495700360444,0.6850085571573973
424,160,-0.0368389903091626,0.4439385750581654
425,169,0.31524496301657035,0.5003592091664962
426,174,0.8290546396489173,1.2902480866831285
427,187,0.2045564821420105,1.1055987386922275
428,188,-0.19880523920718063,-0.07410440319770718
429,189,-0.12352450974734086,1.1722776699111639
430,191,0.36834947328630907,0.9260785392566293
431,214,-0.010484050301901027,0.6337170716043693
432,235,0.020214037505391413,0.9722408762543544
433,243,0.3962013064043437,0.49010091205589074
434,252,-0.4521034573107833,-1.3615206905787114
435,257,0.3997321257106481,1.6287718913331137
436,270,0.24725527397245006,0.6080713288278552
437,276,0.299540787078995,0.8901744993695097
438,293,0.01992765802900065,0.013091122242440613
439,308,0.4109337788776537,0.4388094265028626
440,313,0.48640059087909404,-0.7614103096082832
441,319,0.08688441726918938,-0.17668737430376313
442,330,0.6222387251170551,0.22851536156515856
443,343,-0.023718829216285542,0.9158202421460236
444,344,0.17409797890406797,0.8593996080376929
445,348,0.2857366428013739,1.8031629422134094
446,359,0.48560047103923654,1.1158570358028332
447,363,-0.04014668304327729,0.0951574991272856
448,372,0.15164861614896497,-1.146096451255994
449,385,0.2099931004934894,-0.5152111789537485
450,413,0.30660996512430816,1.1876651155770723
451,435,-0.8750253265921029,-0.9614471032650928
452,450,0.1909348426944235,-1.756465129337028
453,453,-0.7566354675910318,-1.5197651818069136
