,test_index,y_pred,y_true
0,9,0.10993895722864298,-0.5613735159514738
1,30,-0.032350892314457584,0.41316470955605966
2,39,-0.4814242279593797,-1.1358381541453884
3,55,-0.47214244892562457,-1.8187740259868461
4,72,-0.7528814382909597,-1.264066868027958
5,73,0.25776400703958346,1.3620565767892523
6,75,0.2872359346089188,-0.899897320601459
7,76,0.3005212200766944,0.5567798432748271
8,77,0.43877855354221024,0.8747870537036012
9,78,0.4001243273908478,1.1415027785793472
10,79,-1.030506700883406,2.3879525564491484
11,82,-0.039311943358191166,0.18748217312273607
12,90,-0.7321035451360797,-1.0801766340232422
13,101,0.2033132326922142,1.397960616676372
14,113,-0.043170341665930756,0.5106175062771018
15,117,0.174160491216812,1.2646023439066145
16,124,-0.3923618311372797,-0.41186909386150744
17,132,0.4968978081879318,1.834697973361122
18,140,-0.21413484105460678,0.38751896677954556
19,153,-0.13574125541489257,0.7516874883763338
20,155,0.02264445891730832,-0.8837507609493659
21,168,-0.11627426184113834,2.2750446093012675
22,204,0.014375017882253266,-1.3922955819105283
23,220,0.33582815485356526,1.5415767762248505
24,229,0.3418659952665502,0.5729274287566315
25,244,-0.44660267928224584,0.22145765315306196
26,247,-0.01129079299573227,-0.9050264691567618
27,255,0.19246522424158527,1.197923412687678
28,274,-0.8820063157781172,-0.8837507609493659
29,280,0.07447983158683495,0.36700237255833434
30,286,0.35792642092178795,1.5723512572247829
31,290,-0.05474374384914643,-0.14078333441664345
32,301,0.05538331518223471,-1.9095804720099274
33,316,0.25812241963067195,0.2849359956734895
34,323,-0.6824716846401382,-1.2281628281408383
35,338,0.6384364414026281,1.7159674167732615
36,352,-0.02028519363224017,-0.8691224292696421
37,381,-0.6167622773910806,-0.06384610608710156
38,399,-0.5151885639222703,-0.8639932807143393
39,400,0.39219793119714447,0.8645287565929956
40,409,-0.06230518922351442,-1.3410040963575003
41,410,-0.18954809429470762,-1.377667250230805
42,419,0.22581168642001484,-0.04845866042119313
43,423,0.44599454747872436,-0.7511520124976775
44,444,0.23094932884532524,-0.3818533165158756
45,448,-0.08784852095798198,1.2594731953513119
46,0,-0.2703513268437991,-0.0843627003083128
47,11,0.00294778904688983,-0.44416221316569404
48,15,0.0998772382242403,-0.981963697486304
49,19,0.16004749699206416,-1.115321559924177
50,22,0.13249998779981365,-0.10487929452952377
51,24,0.09386388190446705,0.9004327964801152
52,25,0.02726726736486491,0.8696579051482983
53,33,0.0383717057510229,-0.7819269038294944
54,42,-0.20263937771985058,-0.5665026645067766
55,46,0.015981608363942388,-1.428199621797648
56,56,-0.09146041731013639,-1.1519847137974812
57,57,0.6829168316990838,-0.33056183096284747
58,70,-0.29694875277019,-0.8442358004793128
59,93,-0.7374936003477705,-0.9870928460416069
60,116,-0.6937093155249844,-1.9257270316620203
61,137,-0.12316060540000232,-0.17668737430376313
62,154,0.3245995968170157,-0.6126650015045019
63,165,-0.7265567226279444,-1.838531506221873
64,185,-0.4078981985540013,1.1722776699111639
65,193,0.17929133977711192,-1.202517085364325
66,196,-0.12011713688335829,-0.2946577910757278
67,208,-0.013975278149637081,-0.4485322477348119
68,237,0.2038836018078699,0.6132004773831581
69,238,0.96010649088701,0.8029789739293619
70,246,0.11891224259671022,-0.9101556177120647
71,262,0.30660360488805655,-0.8280892408272197
72,266,0.14994936800856115,-0.6485690413916215
73,275,0.405178167735402,1.0081449161414742
74,289,0.20840165416666065,-1.4787319933644911
75,291,0.1250753052218604,-0.9870928460416069
76,299,0.06836274131501985,1.423606359452886
77,314,0.05794299953481935,0.1361906875697081
78,340,0.23756068890217413,0.9312076878119321
79,353,0.06593129962760173,0.07977005346137717
80,390,0.36481135170797424,0.5413923976089187
81,393,-0.6901160712189679,-0.9973511431522124
82,398,-0.3008056271053111,-0.8588641321590366
83,404,0.42067083111344555,0.27980684711818665
84,411,0.4208790281772893,0.10541579623789123
85,422,0.07958503932834099,-0.13052503730603782
86,428,-0.7873594603971082,-1.484620255905979
87,430,0.11366975216829173,0.7157834484892142
88,439,0.16073448612225957,-0.0022963234234678227
89,441,0.4180613406767301,0.5721672889407355
90,445,0.4481914007864891,-0.39724076218178406
91,449,-0.4580312987323658,-1.9359853287726259
92,3,0.07488376762817664,0.5208758033877074
93,5,-0.269711984221027,1.2704916322778133
94,7,0.11077742570828852,-0.14078333441664345
95,16,-0.030167419519111574,0.018220270797743424
96,17,0.023689909057754532,0.6388462201596721
97,18,-0.09573827697639688,-0.04845866042119313
98,26,0.0022287168873146843,-1.3153583535809863
99,29,-0.15603419331851573,-0.07410440319770718
100,31,0.05392708097162767,0.054124310684863106
101,45,0.06259563377605919,-1.2281628281408383
102,60,0.16521336532704048,1.1004695901369248
103,63,0.47684620205815,-0.18694567141436877
104,66,-0.2985145242566806,-1.3248575367054074
105,84,0.2342710138689013,0.7311708941551226
106,94,-0.14624816112497788,0.4644551692793767
107,104,0.3855908410538856,0.5003592091664962
108,108,-0.2677462290099057,0.22851536156515856
109,110,-0.104421561105811,0.03873686501895467
110,126,-0.49859589842107277,-0.4485322477348119
111,131,-0.3073391156081298,-1.433328770352951
112,175,-0.15570872422276844,-0.7921852009400999
113,180,-0.05348477340932126,-0.14591248297194626
114,181,0.26951165378519715,1.372314873899858
115,195,-0.09910876112966038,-1.1358381541453884
116,211,0.17313489539492558,-0.5665026645067766
117,222,0.3062997176081035,-0.5657435505205918
118,231,0.226925408810387,0.9927574704755657
119,245,0.0657969413760297,0.44906772361346825
120,250,0.43483276480138505,1.4338646565634918
121,253,0.22666142753718913,0.4336802779475598
122,285,0.4795508862093982,0.23364451012046136
123,287,0.3500674582596401,0.3516149268924259
124,311,-0.0035577808848444355,0.44982786342936404
125,324,0.11747210611626092,-1.0383843315946348
126,333,0.39718399579335345,1.3466687207914594
127,342,0.15836701271363227,0.5670381403854328
128,355,0.4271802159007097,0.7978498253740591
129,357,0.4625017108941676,0.4644551692793767
130,371,0.02669340099055855,-0.13052503730603782
131,375,-0.3170806649530722,-1.377667250230805
132,378,0.3366809053447798,0.3003234413393979
133,391,-0.7505091615372932,-1.058900925815846
134,403,-0.18817739212408008,0.2849359956734895
135,420,0.5355070476031473,1.7108382682179588
136,431,-0.031704145252831016,-1.5564283356802184
137,452,-0.0014223932417065657,-1.0640300743711486
138,36,-0.35973455560102113,-0.6844730812787412
139,74,0.36291278752226436,0.5978130317172496
140,83,-0.8541401883912604,-1.269196016583261
141,109,-0.17370081799882506,1.397960616676372
142,114,0.10318567322093689,0.018979384783928143
143,118,0.15420546326133988,0.19774047023334168
144,119,-0.6508722543651568,0.746558339821031
145,139,0.26705342358070433,1.2081817097982837
146,141,-0.0550568369249273,-0.05871695753179875
147,145,0.5091364765313826,0.6696211114914888
148,148,0.22416529702819138,0.5318942403142091
149,152,0.13631231486423384,-0.04332951186589032
150,157,0.06737195763987597,0.6593628143808832
151,172,0.2889097423772591,0.9055619450354181
152,173,0.18782890397540614,0.6960269940838989
153,176,-0.6373662583523907,-1.8487898033324786
154,192,-0.23157714550033953,0.8850453508142068
155,203,0.11691498456549411,0.8747870537036012
156,209,0.2513478012372991,1.0491781045838966
157,210,-0.11655283820913352,-0.6024067043938962
158,218,0.39283367233696775,-0.7460228639423747
159,234,0.28236248354673127,1.7115984080338547
160,239,0.2944679109723307,-1.0391434455808197
161,272,0.4997591320224081,1.0286615103626853
162,302,0.07073211086728544,0.45932602072407386
163,304,-0.04916147071785659,1.2440857496854034
164,312,0.42247192711498993,-0.07410440319770718
165,317,0.17856513769071317,1.5056727363377307
166,321,-0.5500676874971039,-0.864752394700524
167,329,0.10412226846742363,1.1825359670217697
168,331,0.19678651056216975,0.4388094265028626
169,332,-0.30921099098741295,-1.8487898033324786
170,336,-0.23337680492995563,1.254344046796009
171,341,-0.08992590818925654,-0.11000844308482659
172,346,-0.024256848874395345,0.5721672889407355
173,349,0.3328427577362007,-0.4280156535136006
174,358,-0.01744955206007871,-0.01768376908937626
175,369,-0.35729422694565055,-0.9665762518203955
176,370,-0.04534182374295008,0.40803556100075683
177,374,-0.8828775320247938,0.18159391058124855
178,379,-0.29985005770215667,-0.6126650015045019
179,401,-0.057200945351604915,1.0337906589179882
180,405,0.6942811878417908,0.3926481153348484
181,414,-0.06543859223092717,-1.4948785530165847
182,424,0.28614065991940657,-0.4485322477348119
183,447,0.14921094008366578,-0.7416528293732568
184,2,0.12242764899591031,0.6285879230490665
185,6,0.0555950854161266,0.9414659849225376
186,10,-0.04506641390610723,-0.9152847662673674
187,38,-0.16654350726643088,0.16696557890152497
188,59,-0.14927598491786448,-0.09386188343273343
189,69,-0.1014352460760208,0.8593996080376929
190,81,-0.6562617942000001,-1.6231072668991549
191,89,-0.558218418697331,-1.5197651818069136
192,92,-0.6251975729324935,-1.6590113067862746
193,96,-0.40425985220857785,-1.9506136604523499
194,103,0.4066542944254337,0.3464857783371231
195,111,0.10444574170888457,0.9106910935907209
196,123,0.6042004092426635,0.9671117276990516
197,143,0.14592758005809456,0.21825706445455292
198,147,0.42599703745292455,-0.0836035863221278
199,150,-0.048445841653123614,0.38751896677954556
200,158,-0.11579956529732348,0.5311341004983131
201,163,0.39809427317343643,0.35674407544772874
202,167,-0.27719092211173474,-0.5349686591887749
203,177,0.3725934333572605,0.772204082597545
204,184,0.056099901961585895,-0.0843627003083128
205,194,-0.035416426838518436,1.5774804057800857
206,198,-0.0068117500685299995,0.6132004773831581
207,199,0.30161969371357794,0.6285879230490665
208,225,0.26059496590428055,1.074064733374226
209,227,0.5062222440933982,1.0337906589179882
210,248,-0.18148759220354205,-1.4794911073506762
211,249,-0.09594581012325011,0.7268018854157158
212,268,-0.19114658687665798,0.22338621300985576
213,277,0.41337972264283407,0.45932602072407386
214,284,0.2763912116856884,1.1312444814687417
215,325,0.16744005550744961,1.1363736300240443
216,334,-0.23860911789664485,-1.54104089001431
217,335,-0.2116784405199869,-0.71087793804144
218,351,0.11626605700023362,-0.66395648705753
219,364,-0.09521933803847121,-0.8845098749355506
220,365,-0.3473421953986004,-0.32711504313368395
221,380,-0.27753780437686965,-0.6434398928363187
222,384,0.010053614617081633,-0.13052503730603782
223,396,-0.15265851928757795,-0.7819269038294944
224,397,-0.6823392483831123,-1.007609440262818
225,407,0.2759881393929634,-0.19720396852497438
226,425,-0.23402812185777908,-0.49982373328783997
227,426,-0.01709696987473644,0.5003592091664962
228,433,-0.02150449400614298,0.17722387601213044
229,23,0.05578733287962141,0.3413566297818203
230,37,-0.09219945088489304,-0.012554620534073446
231,67,-0.021585412684747098,-0.5408569217302625
232,68,-0.3651145732741546,-0.5972775558385934
233,86,-0.6415464122523228,-2.064973156641381
234,97,-0.38344880177544455,-1.9103395859961119
235,112,-0.24280711671989938,0.20799876734394732
236,122,0.09062875187825918,0.10541579623789123
237,125,-0.007690163126128553,-1.829032323097452
238,129,-0.5053460811403965,-1.982906779756536
239,144,0.1780804228939398,0.8234955681505732
240,146,0.39910245122749366,1.4800269935612167
241,179,0.2920538776151095,-0.6793439327234384
242,182,-0.3201538209815548,-0.25362460263330533
243,183,0.13936060231852848,-0.18181652285906594
244,202,0.3474273131588344,1.223569155464192
245,219,-0.12382141371464445,-0.7408937153870718
246,223,0.2370565937201674,2.403273323183838
247,228,0.09736914818213924,0.8593996080376929
248,233,-0.007200583844865499,0.5567798432748271
249,261,0.15468386879505813,-0.3921116136264812
250,265,0.21978906357529548,0.41316470955605966
251,271,0.1385687257933637,0.5318942403142091
252,278,0.32131097059203956,-0.09386188343273343
253,281,0.1552962513820279,0.9730010160702504
254,296,0.4570952132735376,0.3003234413393979
255,297,0.1185933663033503,-0.581890110172685
256,298,0.446454050253523,1.7570006052156841
257,307,-0.07003950126581225,-0.9973511431522124
258,318,0.1832040980322363,-0.32030353385224186
259,320,-0.2613504515804867,-1.2281628281408383
260,322,-0.30994103213892304,-1.0281260344840293
261,347,0.3098319492558919,1.3628163062732637
262,360,-0.25314520163443555,-0.4946945847325372
263,361,0.3094637974375277,-0.01768376908937626
264,373,-0.7791674596572744,-1.402553879021134
265,382,-0.39457485603494197,0.8191265594111662
266,383,-0.16661297112014942,1.4492521022294
267,389,0.17349633746631646,-0.9870928460416069
268,402,-0.13787799387059285,0.08489920201667997
269,427,-0.2479625757556315,-0.03307121475528469
270,434,0.4196468376375679,1.1004695901369248
271,437,-0.4992339008999104,-2.0429383344478005
272,440,0.3804456624731856,1.0337906589179882
273,451,-0.28183082129260945,0.4747134663899823
274,12,-0.0528726394834735,0.09952753369640369
275,28,-0.06895083661262598,-1.5564283356802184
276,35,-0.1072270839073238,-1.2794543136938665
277,41,-0.2793399746272874,-1.931615294203508
278,44,-0.5539417469418764,-1.12045070847948
279,51,-0.3702005848694443,-0.6280524471704103
280,65,-0.30087335607582266,-1.2281628281408383
281,85,-0.6552760005709034,-0.8544940975899185
282,95,-0.21121547495441567,0.6234587744937636
283,107,-0.11252614392032467,-0.35620757373936157
284,115,0.3094650423844648,0.9824991733649601
285,120,-0.14775339429689976,0.22851536156515856
286,127,-0.06769227978734031,0.5157466548324047
287,133,0.6257085364050388,1.249214898240706
288,136,-0.29256056593916935,-0.9717054003756984
289,142,-0.06313353686723064,-0.36133672229466435
290,159,-0.09723727310367528,0.5772964374960384
291,164,0.009828065438510718,0.34724489232330796
292,170,0.30164660491988576,-0.23310800841209406
293,178,0.4398352832958269,0.6029421802725524
294,186,-0.2220645014384501,-1.6436238611203662
295,197,0.2830526441320622,-0.21259141419088282
296,206,0.40881012808570916,-0.009107832704909929
297,221,0.47667875300209184,1.5364476276695476
298,224,0.07174431591845556,0.3464857783371231
299,232,0.3735299719779479,-0.21259141419088282
300,240,0.25861499392435955,1.885229319098254
301,242,0.14227204039638103,0.08489920201667997
302,254,0.29185081216181336,1.331281275125551
303,258,0.1959634278868625,0.03873686501895467
304,282,0.14798086644613742,0.7260417455998198
305,283,0.05983651253503264,-0.20746226563558
306,294,0.3064113947647647,0.56190899183013
307,305,0.3184737574487608,0.5216359432036034
308,310,-0.16616421698906333,1.300506383793734
309,354,0.2477039695752437,0.7106542999339114
310,362,0.626213777233667,-0.07410440319770718
311,367,-0.030086461858978463,-1.3615206905787114
312,376,-0.04326600644146534,-1.264066868027958
313,377,0.31870627816604796,1.4954144392271251
314,392,0.1405032645960456,-0.9050264691567618
315,395,0.06036427319814142,0.1361906875697081
316,412,0.45775420053527527,0.6285879230490665
317,418,0.12561434098448943,1.5979970000012969
318,442,0.5269997917488322,0.23364451012046136
319,4,-0.29554462086094,-0.1561707800825519
320,8,-0.2101557157204959,0.5465215461642215
321,14,-0.08882054384903802,-0.07923355175301
322,27,-0.1518837966868415,0.9649472270087139
323,32,-0.08286223806521112,-1.4076830275764367
324,40,-0.5742614327397169,0.9722408762543544
325,47,-0.4367147206486171,1.9519082503171907
326,61,-0.14884963244567712,1.3364104236808538
327,62,-0.03708279857244908,0.6644919629361861
328,64,-0.1188702913403858,-0.35620757373936157
329,98,-0.3599411938140344,-1.962390185535325
330,100,0.10906740081683322,1.700579971107353
331,128,0.39875339174137864,-0.5767609616173822
332,135,-0.07010051023105215,0.772204082597545
333,138,0.23886321566119928,0.5721672889407355
334,156,-0.00734350161954666,0.5926838831619469
335,162,-0.6303702027162609,-1.1922587882537192
336,171,-0.08616517092166942,1.5210601820036391
337,200,0.5642189974376791,-1.3102292050256834
338,213,-0.11617866066704574,-0.02794206619998188
339,215,0.05683335748470573,-0.09462099741891844
340,216,0.4523226611804009,1.064565550249805
341,226,0.171890209428661,0.2900651442287923
342,230,-0.29268340699540907,-1.346133244912803
343,236,-0.010274541661849818,0.5516506947195243
344,256,0.15710140925889568,-0.3459492766287559
345,260,0.28821782393013584,1.7108382682179588
346,267,0.26522991607229734,0.3618732240030315
347,279,0.042367916894469615,1.2646023439066145
348,288,-0.21468113189528432,1.3158938294596425
349,292,0.3104379249208183,1.1363736300240443
350,300,-0.07341828807442514,-0.012554620534073446
351,326,0.24183412929403833,0.8696579051482983
352,327,0.40020189858193916,1.279989789572523
353,337,0.22148861146274593,-0.02281291764467907
354,356,-0.041066505672381945,0.8909346391854056
355,368,-0.32940300981572174,-1.4435870674635565
356,386,-0.5211298959173659,-1.1614838969219023
357,388,-0.28300399461805625,-0.7101188240552553
358,394,-0.4366535221100469,-1.289712610804472
359,406,0.13310356302321624,0.8491413109270872
360,408,-0.1613276408120012,-1.2794543136938665
361,417,-0.1855164526343688,-1.428199621797648
362,421,0.3785529430548365,2.490469874453696
363,432,0.33155800942673236,0.02386233420857646
364,1,-0.015801682601148427,-1.1768713425878108
365,13,4.572582160097172e-05,0.4952300606111935
366,34,-0.04515233822336942,-0.8588641321590366
367,43,-0.2216347243363546,-1.6641404553415773
368,49,0.23812041113642451,-1.1050632628135713
369,52,-0.33868328826577604,-1.433328770352951
370,53,-0.193590521528629,-1.2179045310302328
371,80,-0.6130464214043491,-1.1768713425878108
372,88,-0.5721329251312856,-2.001905146005378
373,91,-0.6301247823955235,-1.253049456931168
374,105,0.05117268429191842,1.0242925016232785
375,134,0.11521126483377497,-0.18181652285906594
376,161,-0.12645798687639626,-1.6590113067862746
377,166,-0.06968154578444341,-0.04332951186589032
378,190,0.05625178179495482,-1.9257270316620203
379,201,0.1086620302552235,0.3105817384500034
380,205,0.19737919844968274,1.2851189381278256
381,207,-0.07726708871938799,-1.1820004911431137
382,212,-0.06166216633407097,0.4285521552219681
383,217,-0.07109572754220715,0.6285879230490665
384,241,0.2921275568082765,0.2028696187886445
385,251,0.35626311600836197,0.9217095305172225
386,259,0.4539324994389558,0.7883516680793493
387,263,0.4653037803425411,0.9055619450354181
388,264,-0.0010108939630711733,-1.843660654777176
389,269,-0.07688716488959103,-0.9255430633779731
390,273,0.2001525582070991,0.5465215461642215
391,295,0.3599720443618899,-0.1664290771931575
392,303,0.005205664040183431,0.7568166369316367
393,306,0.3141932847890599,0.4798426149452851
394,309,0.008664310050474917,1.3466687207914594
395,315,0.062020940993337506,0.06951175635077154
396,328,0.23831509186799368,0.18748217312273607
397,339,0.30244594086837767,0.6644919629361861
398,345,0.4002868815978581,0.16696557890152497
399,350,0.2236900801835472,1.1363736300240443
400,366,-0.3120959396801347,-0.817830943716614
401,387,-0.4502224351313149,-2.013681671088353
402,415,0.35383752770527505,0.06438260779546873
403,416,0.06432358688820877,1.1927942641323752
404,429,0.13522295223651243,0.6542336658255805
405,436,0.3087039444436185,0.5003592091664962
406,438,0.4226607573345519,0.018979384783928143
407,443,0.30461334055347933,0.7560575229454518
408,446,-0.004423205707305294,1.1722776699111639
409,20,-0.0004711466849546246,-1.561557484235521
410,21,-0.047795195207599395,1.5056727363377307
411,48,0.15440568019069378,-0.66395648705753
412,50,-0.6732809943607417,0.3867598527933607
413,54,-0.24957123800300499,-1.0178677373734237
414,58,0.1509105121806974,-1.798257431765635
415,71,-0.3899379629454522,-1.7367076491020013
416,87,-0.7521051974622514,-1.377667250230805
417,99,-0.4978570109244672,-1.2743251651385636
418,102,-0.728551263441421,-1.9521318884247192
419,106,-0.1910773659394148,-0.6280524471704103
420,121,-0.17711335911858264,-0.7562811610529803
421,130,0.14031580119199127,-0.31517438529693903
422,149,0.5703585948236884,1.0550673929550953
423,151,0.06898405108246722,0.6850085571573973
424,160,0.03738897935276174,0.4439385750581654
425,169,0.3131173613512169,0.5003592091664962
426,174,0.799507647432846,1.2902480866831285
427,187,0.17727228040254459,1.1055987386922275
428,188,-0.030337646932360577,-0.07410440319770718
429,189,0.0364588201618822,1.1722776699111639
430,191,0.22349847735144274,0.9260785392566293
431,214,0.010942692200356353,0.6337170716043693
432,235,0.1012859178417658,0.9722408762543544
433,243,0.3282892215173725,0.49010091205589074
434,252,-0.3905602616127416,-1.3615206905787114
435,257,0.4094675331077011,1.6287718913331137
436,270,0.17786503886714178,0.6080713288278552
437,276,0.40013344455498756,0.8901744993695097
438,293,0.15758255950258893,0.013091122242440613
439,308,0.30170393279779034,0.4388094265028626
440,313,0.34141438235322547,-0.7614103096082832
441,319,0.15165369585213323,-0.17668737430376313
442,330,0.4507799384461905,0.22851536156515856
443,343,0.04675736467537159,0.9158202421460236
444,344,0.10880675349019604,0.8593996080376929
445,348,0.29191972986379366,1.8031629422134094
446,359,0.4198025491500742,1.1158570358028332
447,363,0.028732651976494723,0.0951574991272856
448,372,0.17464045108770854,-1.146096451255994
449,385,0.08154728620185048,-0.5152111789537485
450,413,0.31353972950080705,1.1876651155770723
451,435,-0.758137707664056,-0.9614471032650928
452,450,0.19225726681156327,-1.756465129337028
453,453,-0.585865005395399,-1.5197651818069136
